digraph Tree {
node [shape=box, style="filled, rounded", color="black", fontname=helvetica] ;
edge [fontname=helvetica] ;
0 [label="OverallQual <= 6.5\nmse = 0.1595\nsamples = 1460\nvalue = 12.0241", fillcolor="#e581396a"] ;
1 [label="GrLivArea <= 1378.5\nmse = 0.0821\nsamples = 912\nvalue = 11.8138", fillcolor="#e5813943"] ;
0 -> 1 [labeldistance=2.5, labelangle=45, headlabel="True"] ;
2 [label="OverallQual <= 4.5\nmse = 0.0699\nsamples = 564\nvalue = 11.7039", fillcolor="#e581392f"] ;
1 -> 2 ;
3 [label="mse = 0.0961\nsamples = 118\nvalue = 11.4509", fillcolor="#e5813900"] ;
2 -> 3 ;
4 [label="mse = 0.0415\nsamples = 446\nvalue = 11.7708", fillcolor="#e581393b"] ;
2 -> 4 ;
5 [label="OverallQual <= 5.5\nmse = 0.0506\nsamples = 348\nvalue = 11.9918", fillcolor="#e5813964"] ;
1 -> 5 ;
6 [label="mse = 0.0473\nsamples = 138\nvalue = 11.8741", fillcolor="#e581394e"] ;
5 -> 6 ;
7 [label="mse = 0.0377\nsamples = 210\nvalue = 12.0691", fillcolor="#e5813972"] ;
5 -> 7 ;
8 [label="OverallQual <= 7.5\nmse = 0.0921\nsamples = 548\nvalue = 12.374", fillcolor="#e58139ab"] ;
0 -> 8 [labeldistance=2.5, labelangle=-45, headlabel="False"] ;
9 [label="GrLivArea <= 1822.0\nmse = 0.0443\nsamples = 319\nvalue = 12.2218", fillcolor="#e581398e"] ;
8 -> 9 ;
10 [label="mse = 0.0315\nsamples = 215\nvalue = 12.1476", fillcolor="#e5813981"] ;
9 -> 10 ;
11 [label="mse = 0.0359\nsamples = 104\nvalue = 12.3752", fillcolor="#e58139ab"] ;
9 -> 11 ;
12 [label="OverallQual <= 8.5\nmse = 0.0814\nsamples = 229\nvalue = 12.5861", fillcolor="#e58139d2"] ;
8 -> 12 ;
13 [label="mse = 0.0532\nsamples = 168\nvalue = 12.4972", fillcolor="#e58139c1"] ;
12 -> 13 ;
14 [label="mse = 0.0773\nsamples = 61\nvalue = 12.831", fillcolor="#e58139ff"] ;
12 -> 14 ;
}